digraph Tree {
node [shape=box] ;
0 [label="女性 <= 0.5\ngini = 0.446\nsamples = 984\nvalue = [653, 331]"] ;
1 [label="年龄 <= 12.0\ngini = 0.269\nsamples = 630\nvalue = [529, 101]"] ;
0 -> 1 [labeldistance=2.5, labelangle=45, headlabel="True"] ;
2 [label="pclass=3rd <= 0.5\ngini = 0.42\nsamples = 20\nvalue = [6, 14]"] ;
1 -> 2 ;
3 [label="gini = 0.0\nsamples = 11\nvalue = [0, 11]"] ;
2 -> 3 ;
4 [label="年龄 <= 2.5\ngini = 0.444\nsamples = 9\nvalue = [6, 3]"] ;
2 -> 4 ;
5 [label="年龄 <= 0.583\ngini = 0.444\nsamples = 3\nvalue = [1, 2]"] ;
4 -> 5 ;
6 [label="gini = 0.0\nsamples = 1\nvalue = [1, 0]"] ;
5 -> 6 ;
7 [label="gini = 0.0\nsamples = 2\nvalue = [0, 2]"] ;
5 -> 7 ;
8 [label="年龄 <= 7.5\ngini = 0.278\nsamples = 6\nvalue = [5, 1]"] ;
4 -> 8 ;
9 [label="gini = 0.0\nsamples = 3\nvalue = [3, 0]"] ;
8 -> 9 ;
10 [label="年龄 <= 10.0\ngini = 0.444\nsamples = 3\nvalue = [2, 1]"] ;
8 -> 10 ;
11 [label="gini = 0.5\nsamples = 2\nvalue = [1, 1]"] ;
10 -> 11 ;
12 [label="gini = 0.0\nsamples = 1\nvalue = [1, 0]"] ;
10 -> 12 ;
13 [label="pclass=1st <= 0.5\ngini = 0.245\nsamples = 610\nvalue = [523, 87]"] ;
1 -> 13 ;
14 [label="年龄 <= 18.5\ngini = 0.171\nsamples = 478\nvalue = [433, 45]"] ;
13 -> 14 ;
15 [label="gini = 0.0\nsamples = 17\nvalue = [17, 0]"] ;
14 -> 15 ;
16 [label="年龄 <= 20.5\ngini = 0.176\nsamples = 461\nvalue = [416, 45]"] ;
14 -> 16 ;
17 [label="pclass=3rd <= 0.5\ngini = 0.346\nsamples = 18\nvalue = [14, 4]"] ;
16 -> 17 ;
18 [label="年龄 <= 19.5\ngini = 0.278\nsamples = 6\nvalue = [5, 1]"] ;
17 -> 18 ;
19 [label="gini = 0.0\nsamples = 2\nvalue = [2, 0]"] ;
18 -> 19 ;
20 [label="gini = 0.375\nsamples = 4\nvalue = [3, 1]"] ;
18 -> 20 ;
21 [label="年龄 <= 19.5\ngini = 0.375\nsamples = 12\nvalue = [9, 3]"] ;
17 -> 21 ;
22 [label="gini = 0.444\nsamples = 6\nvalue = [4, 2]"] ;
21 -> 22 ;
23 [label="gini = 0.278\nsamples = 6\nvalue = [5, 1]"] ;
21 -> 23 ;
24 [label="年龄 <= 45.5\ngini = 0.168\nsamples = 443\nvalue = [402, 41]"] ;
16 -> 24 ;
25 [label="年龄 <= 44.5\ngini = 0.172\nsamples = 431\nvalue = [390, 41]"] ;
24 -> 25 ;
26 [label="年龄 <= 41.5\ngini = 0.17\nsamples = 427\nvalue = [387, 40]"] ;
25 -> 26 ;
27 [label="年龄 <= 40.5\ngini = 0.172\nsamples = 420\nvalue = [380, 40]"] ;
26 -> 27 ;
28 [label="年龄 <= 36.5\ngini = 0.17\nsamples = 416\nvalue = [377, 39]"] ;
27 -> 28 ;
29 [label="年龄 <= 35.5\ngini = 0.174\nsamples = 404\nvalue = [365, 39]"] ;
28 -> 29 ;
30 [label="年龄 <= 34.5\ngini = 0.172\nsamples = 400\nvalue = [362, 38]"] ;
29 -> 30 ;
31 [label="年龄 <= 33.5\ngini = 0.175\nsamples = 393\nvalue = [355, 38]"] ;
30 -> 31 ;
32 [label="年龄 <= 32.5\ngini = 0.173\nsamples = 388\nvalue = [351, 37]"] ;
31 -> 32 ;
33 [label="pclass=2nd <= 0.5\ngini = 0.174\nsamples = 384\nvalue = [347, 37]"] ;
32 -> 33 ;
34 [label="年龄 <= 25.5\ngini = 0.18\nsamples = 300\nvalue = [270, 30]"] ;
33 -> 34 ;
35 [label="年龄 <= 22.5\ngini = 0.269\nsamples = 25\nvalue = [21, 4]"] ;
34 -> 35 ;
36 [label="年龄 <= 21.5\ngini = 0.165\nsamples = 11\nvalue = [10, 1]"] ;
35 -> 36 ;
37 [label="gini = 0.278\nsamples = 6\nvalue = [5, 1]"] ;
36 -> 37 ;
38 [label="gini = 0.0\nsamples = 5\nvalue = [5, 0]"] ;
36 -> 38 ;
39 [label="年龄 <= 23.5\ngini = 0.337\nsamples = 14\nvalue = [11, 3]"] ;
35 -> 39 ;
40 [label="gini = 0.5\nsamples = 2\nvalue = [1, 1]"] ;
39 -> 40 ;
41 [label="年龄 <= 24.5\ngini = 0.278\nsamples = 12\nvalue = [10, 2]"] ;
39 -> 41 ;
42 [label="gini = 0.245\nsamples = 7\nvalue = [6, 1]"] ;
41 -> 42 ;
43 [label="gini = 0.32\nsamples = 5\nvalue = [4, 1]"] ;
41 -> 43 ;
44 [label="年龄 <= 29.5\ngini = 0.171\nsamples = 275\nvalue = [249, 26]"] ;
34 -> 44 ;
45 [label="gini = 0.0\nsamples = 16\nvalue = [16, 0]"] ;
44 -> 45 ;
46 [label="年龄 <= 30.5\ngini = 0.181\nsamples = 259\nvalue = [233, 26]"] ;
44 -> 46 ;
47 [label="gini = 0.375\nsamples = 4\nvalue = [3, 1]"] ;
46 -> 47 ;
48 [label="年龄 <= 31.597\ngini = 0.177\nsamples = 255\nvalue = [230, 25]"] ;
46 -> 48 ;
49 [label="年龄 <= 31.097\ngini = 0.173\nsamples = 251\nvalue = [227, 24]"] ;
48 -> 49 ;
50 [label="gini = 0.0\nsamples = 2\nvalue = [2, 0]"] ;
49 -> 50 ;
51 [label="gini = 0.174\nsamples = 249\nvalue = [225, 24]"] ;
49 -> 51 ;
52 [label="gini = 0.375\nsamples = 4\nvalue = [3, 1]"] ;
48 -> 52 ;
53 [label="年龄 <= 21.5\ngini = 0.153\nsamples = 84\nvalue = [77, 7]"] ;
33 -> 53 ;
54 [label="gini = 0.0\nsamples = 5\nvalue = [5, 0]"] ;
53 -> 54 ;
55 [label="年龄 <= 22.5\ngini = 0.162\nsamples = 79\nvalue = [72, 7]"] ;
53 -> 55 ;
56 [label="gini = 0.375\nsamples = 4\nvalue = [3, 1]"] ;
55 -> 56 ;
57 [label="年龄 <= 25.5\ngini = 0.147\nsamples = 75\nvalue = [69, 6]"] ;
55 -> 57 ;
58 [label="gini = 0.0\nsamples = 12\nvalue = [12, 0]"] ;
57 -> 58 ;
59 [label="年龄 <= 27.0\ngini = 0.172\nsamples = 63\nvalue = [57, 6]"] ;
57 -> 59 ;
60 [label="gini = 0.375\nsamples = 4\nvalue = [3, 1]"] ;
59 -> 60 ;
61 [label="年龄 <= 29.5\ngini = 0.155\nsamples = 59\nvalue = [54, 5]"] ;
59 -> 61 ;
62 [label="gini = 0.0\nsamples = 6\nvalue = [6, 0]"] ;
61 -> 62 ;
63 [label="年龄 <= 31.597\ngini = 0.171\nsamples = 53\nvalue = [48, 5]"] ;
61 -> 63 ;
64 [label="年龄 <= 30.5\ngini = 0.18\nsamples = 50\nvalue = [45, 5]"] ;
63 -> 64 ;
65 [label="gini = 0.219\nsamples = 8\nvalue = [7, 1]"] ;
64 -> 65 ;
66 [label="年龄 <= 31.097\ngini = 0.172\nsamples = 42\nvalue = [38, 4]"] ;
64 -> 66 ;
67 [label="gini = 0.0\nsamples = 1\nvalue = [1, 0]"] ;
66 -> 67 ;
68 [label="gini = 0.176\nsamples = 41\nvalue = [37, 4]"] ;
66 -> 68 ;
69 [label="gini = 0.0\nsamples = 3\nvalue = [3, 0]"] ;
63 -> 69 ;
70 [label="gini = 0.0\nsamples = 4\nvalue = [4, 0]"] ;
32 -> 70 ;
71 [label="pclass=2nd <= 0.5\ngini = 0.32\nsamples = 5\nvalue = [4, 1]"] ;
31 -> 71 ;
72 [label="gini = 0.0\nsamples = 1\nvalue = [1, 0]"] ;
71 -> 72 ;
73 [label="gini = 0.375\nsamples = 4\nvalue = [3, 1]"] ;
71 -> 73 ;
74 [label="gini = 0.0\nsamples = 7\nvalue = [7, 0]"] ;
30 -> 74 ;
75 [label="pclass=3rd <= 0.5\ngini = 0.375\nsamples = 4\nvalue = [3, 1]"] ;
29 -> 75 ;
76 [label="gini = 0.0\nsamples = 2\nvalue = [2, 0]"] ;
75 -> 76 ;
77 [label="gini = 0.5\nsamples = 2\nvalue = [1, 1]"] ;
75 -> 77 ;
78 [label="gini = 0.0\nsamples = 12\nvalue = [12, 0]"] ;
28 -> 78 ;
79 [label="pclass=2nd <= 0.5\ngini = 0.375\nsamples = 4\nvalue = [3, 1]"] ;
27 -> 79 ;
80 [label="gini = 0.0\nsamples = 2\nvalue = [2, 0]"] ;
79 -> 80 ;
81 [label="gini = 0.5\nsamples = 2\nvalue = [1, 1]"] ;
79 -> 81 ;
82 [label="gini = 0.0\nsamples = 7\nvalue = [7, 0]"] ;
26 -> 82 ;
83 [label="pclass=2nd <= 0.5\ngini = 0.375\nsamples = 4\nvalue = [3, 1]"] ;
25 -> 83 ;
84 [label="gini = 0.5\nsamples = 2\nvalue = [1, 1]"] ;
83 -> 84 ;
85 [label="gini = 0.0\nsamples = 2\nvalue = [2, 0]"] ;
83 -> 85 ;
86 [label="gini = 0.0\nsamples = 12\nvalue = [12, 0]"] ;
24 -> 86 ;
87 [label="年龄 <= 29.0\ngini = 0.434\nsamples = 132\nvalue = [90, 42]"] ;
13 -> 87 ;
88 [label="年龄 <= 18.0\ngini = 0.457\nsamples = 17\nvalue = [6, 11]"] ;
87 -> 88 ;
89 [label="gini = 0.0\nsamples = 2\nvalue = [0, 2]"] ;
88 -> 89 ;
90 [label="年龄 <= 22.0\ngini = 0.48\nsamples = 15\nvalue = [6, 9]"] ;
88 -> 90 ;
91 [label="gini = 0.0\nsamples = 2\nvalue = [2, 0]"] ;
90 -> 91 ;
92 [label="年龄 <= 23.5\ngini = 0.426\nsamples = 13\nvalue = [4, 9]"] ;
90 -> 92 ;
93 [label="gini = 0.0\nsamples = 1\nvalue = [0, 1]"] ;
92 -> 93 ;
94 [label="年龄 <= 24.5\ngini = 0.444\nsamples = 12\nvalue = [4, 8]"] ;
92 -> 94 ;
95 [label="gini = 0.5\nsamples = 2\nvalue = [1, 1]"] ;
94 -> 95 ;
96 [label="年龄 <= 26.5\ngini = 0.42\nsamples = 10\nvalue = [3, 7]"] ;
94 -> 96 ;
97 [label="年龄 <= 25.5\ngini = 0.375\nsamples = 4\nvalue = [1, 3]"] ;
96 -> 97 ;
98 [label="gini = 0.444\nsamples = 3\nvalue = [1, 2]"] ;
97 -> 98 ;
99 [label="gini = 0.0\nsamples = 1\nvalue = [0, 1]"] ;
97 -> 99 ;
100 [label="年龄 <= 27.5\ngini = 0.444\nsamples = 6\nvalue = [2, 4]"] ;
96 -> 100 ;
101 [label="gini = 0.444\nsamples = 3\nvalue = [1, 2]"] ;
100 -> 101 ;
102 [label="gini = 0.444\nsamples = 3\nvalue = [1, 2]"] ;
100 -> 102 ;
103 [label="年龄 <= 60.5\ngini = 0.394\nsamples = 115\nvalue = [84, 31]"] ;
87 -> 103 ;
104 [label="年龄 <= 30.5\ngini = 0.418\nsamples = 104\nvalue = [73, 31]"] ;
103 -> 104 ;
105 [label="gini = 0.0\nsamples = 4\nvalue = [4, 0]"] ;
104 -> 105 ;
106 [label="年龄 <= 31.097\ngini = 0.428\nsamples = 100\nvalue = [69, 31]"] ;
104 -> 106 ;
107 [label="gini = 0.0\nsamples = 1\nvalue = [0, 1]"] ;
106 -> 107 ;
108 [label="年龄 <= 47.5\ngini = 0.422\nsamples = 99\nvalue = [69, 30]"] ;
106 -> 108 ;
109 [label="年龄 <= 38.5\ngini = 0.397\nsamples = 77\nvalue = [56, 21]"] ;
108 -> 109 ;
110 [label="年龄 <= 33.5\ngini = 0.441\nsamples = 58\nvalue = [39, 19]"] ;
109 -> 110 ;
111 [label="年龄 <= 31.597\ngini = 0.395\nsamples = 48\nvalue = [35, 13]"] ;
110 -> 111 ;
112 [label="gini = 0.411\nsamples = 45\nvalue = [32, 13]"] ;
111 -> 112 ;
113 [label="gini = 0.0\nsamples = 3\nvalue = [3, 0]"] ;
111 -> 113 ;
114 [label="年龄 <= 35.0\ngini = 0.48\nsamples = 10\nvalue = [4, 6]"] ;
110 -> 114 ;
115 [label="gini = 0.0\nsamples = 1\nvalue = [0, 1]"] ;
114 -> 115 ;
116 [label="年龄 <= 36.5\ngini = 0.494\nsamples = 9\nvalue = [4, 5]"] ;
114 -> 116 ;
117 [label="gini = 0.48\nsamples = 5\nvalue = [2, 3]"] ;
116 -> 117 ;
118 [label="年龄 <= 37.5\ngini = 0.5\nsamples = 4\nvalue = [2, 2]"] ;
116 -> 118 ;
119 [label="gini = 0.5\nsamples = 2\nvalue = [1, 1]"] ;
118 -> 119 ;
120 [label="gini = 0.5\nsamples = 2\nvalue = [1, 1]"] ;
118 -> 120 ;
121 [label="年龄 <= 44.5\ngini = 0.188\nsamples = 19\nvalue = [17, 2]"] ;
109 -> 121 ;
122 [label="gini = 0.0\nsamples = 5\nvalue = [5, 0]"] ;
121 -> 122 ;
123 [label="年龄 <= 45.5\ngini = 0.245\nsamples = 14\nvalue = [12, 2]"] ;
121 -> 123 ;
124 [label="gini = 0.375\nsamples = 4\nvalue = [3, 1]"] ;
123 -> 124 ;
125 [label="年龄 <= 46.5\ngini = 0.18\nsamples = 10\nvalue = [9, 1]"] ;
123 -> 125 ;
126 [label="gini = 0.0\nsamples = 5\nvalue = [5, 0]"] ;
125 -> 126 ;
127 [label="gini = 0.32\nsamples = 5\nvalue = [4, 1]"] ;
125 -> 127 ;
128 [label="年龄 <= 49.5\ngini = 0.483\nsamples = 22\nvalue = [13, 9]"] ;
108 -> 128 ;
129 [label="年龄 <= 48.5\ngini = 0.408\nsamples = 7\nvalue = [2, 5]"] ;
128 -> 129 ;
130 [label="gini = 0.444\nsamples = 3\nvalue = [1, 2]"] ;
129 -> 130 ;
131 [label="gini = 0.375\nsamples = 4\nvalue = [1, 3]"] ;
129 -> 131 ;
132 [label="年龄 <= 52.5\ngini = 0.391\nsamples = 15\nvalue = [11, 4]"] ;
128 -> 132 ;
133 [label="gini = 0.0\nsamples = 4\nvalue = [4, 0]"] ;
132 -> 133 ;
134 [label="年龄 <= 54.5\ngini = 0.463\nsamples = 11\nvalue = [7, 4]"] ;
132 -> 134 ;
135 [label="gini = 0.5\nsamples = 4\nvalue = [2, 2]"] ;
134 -> 135 ;
136 [label="年龄 <= 59.0\ngini = 0.408\nsamples = 7\nvalue = [5, 2]"] ;
134 -> 136 ;
137 [label="年龄 <= 56.5\ngini = 0.32\nsamples = 5\nvalue = [4, 1]"] ;
136 -> 137 ;
138 [label="年龄 <= 55.5\ngini = 0.444\nsamples = 3\nvalue = [2, 1]"] ;
137 -> 138 ;
139 [label="gini = 0.0\nsamples = 1\nvalue = [1, 0]"] ;
138 -> 139 ;
140 [label="gini = 0.5\nsamples = 2\nvalue = [1, 1]"] ;
138 -> 140 ;
141 [label="gini = 0.0\nsamples = 2\nvalue = [2, 0]"] ;
137 -> 141 ;
142 [label="gini = 0.5\nsamples = 2\nvalue = [1, 1]"] ;
136 -> 142 ;
143 [label="gini = 0.0\nsamples = 11\nvalue = [11, 0]"] ;
103 -> 143 ;
144 [label="pclass=3rd <= 0.5\ngini = 0.455\nsamples = 354\nvalue = [124, 230]"] ;
0 -> 144 [labeldistance=2.5, labelangle=-45, headlabel="False"] ;
145 [label="年龄 <= 2.5\ngini = 0.172\nsamples = 179\nvalue = [17, 162]"] ;
144 -> 145 ;
146 [label="pclass=2nd <= 0.5\ngini = 0.444\nsamples = 3\nvalue = [1, 2]"] ;
145 -> 146 ;
147 [label="gini = 0.0\nsamples = 1\nvalue = [1, 0]"] ;
146 -> 147 ;
148 [label="gini = 0.0\nsamples = 2\nvalue = [0, 2]"] ;
146 -> 148 ;
149 [label="年龄 <= 62.5\ngini = 0.165\nsamples = 176\nvalue = [16, 160]"] ;
145 -> 149 ;
150 [label="年龄 <= 38.5\ngini = 0.158\nsamples = 173\nvalue = [15, 158]"] ;
149 -> 150 ;
151 [label="年龄 <= 37.0\ngini = 0.192\nsamples = 130\nvalue = [14, 116]"] ;
150 -> 151 ;
152 [label="年龄 <= 25.5\ngini = 0.181\nsamples = 129\nvalue = [13, 116]"] ;
151 -> 152 ;
153 [label="pclass=1st <= 0.5\ngini = 0.085\nsamples = 45\nvalue = [2, 43]"] ;
152 -> 153 ;
154 [label="年龄 <= 15.5\ngini = 0.153\nsamples = 24\nvalue = [2, 22]"] ;
153 -> 154 ;
155 [label="gini = 0.0\nsamples = 7\nvalue = [0, 7]"] ;
154 -> 155 ;
156 [label="年龄 <= 22.5\ngini = 0.208\nsamples = 17\nvalue = [2, 15]"] ;
154 -> 156 ;
157 [label="年龄 <= 21.5\ngini = 0.298\nsamples = 11\nvalue = [2, 9]"] ;
156 -> 157 ;
158 [label="年龄 <= 18.5\ngini = 0.219\nsamples = 8\nvalue = [1, 7]"] ;
157 -> 158 ;
159 [label="gini = 0.375\nsamples = 4\nvalue = [1, 3]"] ;
158 -> 159 ;
160 [label="gini = 0.0\nsamples = 4\nvalue = [0, 4]"] ;
158 -> 160 ;
161 [label="gini = 0.444\nsamples = 3\nvalue = [1, 2]"] ;
157 -> 161 ;
162 [label="gini = 0.0\nsamples = 6\nvalue = [0, 6]"] ;
156 -> 162 ;
163 [label="gini = 0.0\nsamples = 21\nvalue = [0, 21]"] ;
153 -> 163 ;
164 [label="年龄 <= 27.5\ngini = 0.228\nsamples = 84\nvalue = [11, 73]"] ;
152 -> 164 ;
165 [label="pclass=1st <= 0.5\ngini = 0.408\nsamples = 7\nvalue = [2, 5]"] ;
164 -> 165 ;
166 [label="年龄 <= 26.5\ngini = 0.5\nsamples = 4\nvalue = [2, 2]"] ;
165 -> 166 ;
167 [label="gini = 0.444\nsamples = 3\nvalue = [1, 2]"] ;
166 -> 167 ;
168 [label="gini = 0.0\nsamples = 1\nvalue = [1, 0]"] ;
166 -> 168 ;
169 [label="gini = 0.0\nsamples = 3\nvalue = [0, 3]"] ;
165 -> 169 ;
170 [label="年龄 <= 29.5\ngini = 0.206\nsamples = 77\nvalue = [9, 68]"] ;
164 -> 170 ;
171 [label="gini = 0.0\nsamples = 8\nvalue = [0, 8]"] ;
170 -> 171 ;
172 [label="年龄 <= 31.597\ngini = 0.227\nsamples = 69\nvalue = [9, 60]"] ;
170 -> 172 ;
173 [label="年龄 <= 30.5\ngini = 0.26\nsamples = 52\nvalue = [8, 44]"] ;
172 -> 173 ;
174 [label="gini = 0.375\nsamples = 4\nvalue = [1, 3]"] ;
173 -> 174 ;
175 [label="年龄 <= 31.097\ngini = 0.249\nsamples = 48\nvalue = [7, 41]"] ;
173 -> 175 ;
176 [label="gini = 0.0\nsamples = 5\nvalue = [0, 5]"] ;
175 -> 176 ;
177 [label="pclass=2nd <= 0.5\ngini = 0.273\nsamples = 43\nvalue = [7, 36]"] ;
175 -> 177 ;
178 [label="gini = 0.252\nsamples = 27\nvalue = [4, 23]"] ;
177 -> 178 ;
179 [label="gini = 0.305\nsamples = 16\nvalue = [3, 13]"] ;
177 -> 179 ;
180 [label="pclass=1st <= 0.5\ngini = 0.111\nsamples = 17\nvalue = [1, 16]"] ;
172 -> 180 ;
181 [label="gini = 0.0\nsamples = 11\nvalue = [0, 11]"] ;
180 -> 181 ;
182 [label="年龄 <= 35.5\ngini = 0.278\nsamples = 6\nvalue = [1, 5]"] ;
180 -> 182 ;
183 [label="gini = 0.0\nsamples = 3\nvalue = [0, 3]"] ;
182 -> 183 ;
184 [label="gini = 0.444\nsamples = 3\nvalue = [1, 2]"] ;
182 -> 184 ;
185 [label="gini = 0.0\nsamples = 1\nvalue = [1, 0]"] ;
151 -> 185 ;
186 [label="年龄 <= 49.5\ngini = 0.045\nsamples = 43\nvalue = [1, 42]"] ;
150 -> 186 ;
187 [label="gini = 0.0\nsamples = 23\nvalue = [0, 23]"] ;
186 -> 187 ;
188 [label="年龄 <= 51.0\ngini = 0.095\nsamples = 20\nvalue = [1, 19]"] ;
186 -> 188 ;
189 [label="pclass=1st <= 0.5\ngini = 0.32\nsamples = 5\nvalue = [1, 4]"] ;
188 -> 189 ;
190 [label="gini = 0.0\nsamples = 2\nvalue = [0, 2]"] ;
189 -> 190 ;
191 [label="gini = 0.444\nsamples = 3\nvalue = [1, 2]"] ;
189 -> 191 ;
192 [label="gini = 0.0\nsamples = 15\nvalue = [0, 15]"] ;
188 -> 192 ;
193 [label="年龄 <= 66.0\ngini = 0.444\nsamples = 3\nvalue = [1, 2]"] ;
149 -> 193 ;
194 [label="gini = 0.5\nsamples = 2\nvalue = [1, 1]"] ;
193 -> 194 ;
195 [label="gini = 0.0\nsamples = 1\nvalue = [0, 1]"] ;
193 -> 195 ;
196 [label="年龄 <= 19.5\ngini = 0.475\nsamples = 175\nvalue = [107, 68]"] ;
144 -> 196 ;
197 [label="年龄 <= 13.0\ngini = 0.476\nsamples = 23\nvalue = [9, 14]"] ;
196 -> 197 ;
198 [label="年龄 <= 7.0\ngini = 0.444\nsamples = 9\nvalue = [6, 3]"] ;
197 -> 198 ;
199 [label="年龄 <= 3.5\ngini = 0.375\nsamples = 4\nvalue = [1, 3]"] ;
198 -> 199 ;
200 [label="年龄 <= 1.083\ngini = 0.5\nsamples = 2\nvalue = [1, 1]"] ;
199 -> 200 ;
201 [label="gini = 0.0\nsamples = 1\nvalue = [0, 1]"] ;
200 -> 201 ;
202 [label="gini = 0.0\nsamples = 1\nvalue = [1, 0]"] ;
200 -> 202 ;
203 [label="gini = 0.0\nsamples = 2\nvalue = [0, 2]"] ;
199 -> 203 ;
204 [label="gini = 0.0\nsamples = 5\nvalue = [5, 0]"] ;
198 -> 204 ;
205 [label="年龄 <= 16.5\ngini = 0.337\nsamples = 14\nvalue = [3, 11]"] ;
197 -> 205 ;
206 [label="gini = 0.0\nsamples = 4\nvalue = [0, 4]"] ;
205 -> 206 ;
207 [label="年龄 <= 18.5\ngini = 0.42\nsamples = 10\nvalue = [3, 7]"] ;
205 -> 207 ;
208 [label="年龄 <= 17.5\ngini = 0.444\nsamples = 9\nvalue = [3, 6]"] ;
207 -> 208 ;
209 [label="gini = 0.444\nsamples = 3\nvalue = [1, 2]"] ;
208 -> 209 ;
210 [label="gini = 0.444\nsamples = 6\nvalue = [2, 4]"] ;
208 -> 210 ;
211 [label="gini = 0.0\nsamples = 1\nvalue = [0, 1]"] ;
207 -> 211 ;
212 [label="年龄 <= 39.0\ngini = 0.458\nsamples = 152\nvalue = [98, 54]"] ;
196 -> 212 ;
213 [label="年龄 <= 32.5\ngini = 0.463\nsamples = 148\nvalue = [94, 54]"] ;
212 -> 213 ;
214 [label="年龄 <= 21.5\ngini = 0.453\nsamples = 141\nvalue = [92, 49]"] ;
213 -> 214 ;
215 [label="gini = 0.0\nsamples = 3\nvalue = [3, 0]"] ;
214 -> 215 ;
216 [label="年龄 <= 23.5\ngini = 0.458\nsamples = 138\nvalue = [89, 49]"] ;
214 -> 216 ;
217 [label="年龄 <= 22.5\ngini = 0.375\nsamples = 4\nvalue = [1, 3]"] ;
216 -> 217 ;
218 [label="gini = 0.444\nsamples = 3\nvalue = [1, 2]"] ;
217 -> 218 ;
219 [label="gini = 0.0\nsamples = 1\nvalue = [0, 1]"] ;
217 -> 219 ;
220 [label="年龄 <= 31.597\ngini = 0.451\nsamples = 134\nvalue = [88, 46]"] ;
216 -> 220 ;
221 [label="年龄 <= 26.0\ngini = 0.452\nsamples = 133\nvalue = [87, 46]"] ;
220 -> 221 ;
222 [label="gini = 0.5\nsamples = 2\nvalue = [1, 1]"] ;
221 -> 222 ;
223 [label="年龄 <= 29.0\ngini = 0.451\nsamples = 131\nvalue = [86, 45]"] ;
221 -> 223 ;
224 [label="gini = 0.0\nsamples = 1\nvalue = [1, 0]"] ;
223 -> 224 ;
225 [label="年龄 <= 30.597\ngini = 0.453\nsamples = 130\nvalue = [85, 45]"] ;
223 -> 225 ;
226 [label="gini = 0.5\nsamples = 2\nvalue = [1, 1]"] ;
225 -> 226 ;
227 [label="gini = 0.451\nsamples = 128\nvalue = [84, 44]"] ;
225 -> 227 ;
228 [label="gini = 0.0\nsamples = 1\nvalue = [1, 0]"] ;
220 -> 228 ;
229 [label="年龄 <= 36.5\ngini = 0.408\nsamples = 7\nvalue = [2, 5]"] ;
213 -> 229 ;
230 [label="gini = 0.0\nsamples = 4\nvalue = [0, 4]"] ;
229 -> 230 ;
231 [label="年龄 <= 37.5\ngini = 0.444\nsamples = 3\nvalue = [2, 1]"] ;
229 -> 231 ;
232 [label="gini = 0.0\nsamples = 1\nvalue = [1, 0]"] ;
231 -> 232 ;
233 [label="gini = 0.5\nsamples = 2\nvalue = [1, 1]"] ;
231 -> 233 ;
234 [label="gini = 0.0\nsamples = 4\nvalue = [4, 0]"] ;
212 -> 234 ;
}